svm_type c_svc
kernel_type rbf
gamma 0.045454545454545456
nr_class 3
total_sv 262
rho -6.874068259631287E-23 -0.08888888888888889 -0.08888888888888889
label -2 -1 3
nr_sv 90 90 82
SV
1.0 0.91015625 1:17.37 2:0.09932 3:5.098E-4 4:1685.0 5:0.002295 6:0.08917 7:0.554 8:43.89 9:211.8 10:252.0 11:0.009178 12:9.552 13:0.05763 14:7.58E-4 15:244.2 16:0.001204 17:0.04537 18:0.07016 19:20.21 20:9.811 21:142.8 22:0.002352 
1.0 0.91015625 1:19.94 2:0.1386 3:0.001405 4:1666.0 5:0.003443 6:0.1415 7:0.5448 8:52.06 9:188.1 10:590.8 11:0.008892 12:15.62 13:0.1247 14:0.001831 15:225.8 16:0.002015 17:0.0794 18:0.07229 19:34.08 20:39.73 21:290.8 22:7.348E-4 
1.0 0.9111328125 1:16.74 2:0.1074 3:0.002794 4:1680.0 5:0.004587 6:0.1856 7:0.5281 8:46.7 9:211.1 10:1162.0 11:0.00922 12:12.89 13:0.1144 14:0.005083 15:175.4 16:0.002709 17:0.1077 18:0.0695 19:29.38 20:20.27 21:834.4 22:0.00152 
1.0 0.9111328125 1:11.16 2:0.07101 3:6.219E-4 4:1730.0 5:0.002451 6:0.09541 7:0.5788 8:31.74 9:211.3 10:274.1 11:0.009263 12:7.712 13:0.05725 14:0.001451 15:233.2 16:0.00146 17:0.05476 18:0.08305 19:19.99 20:18.1 21:125.4 22:0.001287 
1.0 0.9111328125 1:20.1 2:0.1325 3:0.00294 4:1676.0 5:0.00461 6:0.1861 7:0.5093 8:52.63 9:199.4 10:1035.0 11:0.009596 12:13.07 13:0.1117 14:0.004021 15:251.1 16:0.002395 17:0.09263 18:0.06045 19:28.17 20:23.02 21:336.0 22:0.003904 
1.0 0.9111328125 1:12.19 2:0.07551 3:4.884E-4 4:1648.0 5:0.002479 6:0.09696 7:0.5496 8:31.18 9:196.6 10:279.4 11:0.009128 12:12.67 13:0.1059 14:7.204E-4 15:198.5 16:0.00145 17:0.05476 18:0.0554 19:28.55 20:27.69 21:122.4 22:0.001149 
1.0 0.9111328125 1:10.73 2:0.06026 3:0.002241 4:1668.0 5:0.004659 6:0.1835 7:0.5568 8:33.83 9:210.6 10:997.5 11:0.009367 12:6.992 13:0.06109 14:0.003423 15:195.0 16:0.002426 17:0.09091 18:0.0492 19:20.68 20:16.53 21:468.3 22:0.003018 
1.0 0.9111328125 1:16.78 2:0.09894 3:0.002004 4:1656.0 5:0.004764 6:0.1885 7:0.5388 8:42.39 9:206.6 10:1127.0 11:0.00914 12:13.83 13:0.1109 14:0.002897 15:175.9 16:0.002533 17:0.09715 18:0.06432 19:31.0 20:26.44 21:622.4 22:0.001828 
1.0 0.9111328125 1:12.28 2:0.07792 3:0.001163 4:1673.0 5:0.003385 6:0.132 7:0.536 8:32.57 9:190.3 10:502.6 11:0.009245 12:8.601 13:0.06806 14:0.001698 15:252.1 16:0.001776 17:0.06698 18:0.0528 19:19.83 20:25.9 21:171.9 22:0.002873 
1.0 0.9111328125 1:18.1 2:0.12 3:0.002388 4:1697.0 5:0.004688 6:0.186 7:0.5115 8:48.65 9:207.7 10:997.0 11:0.008909 12:14.42 13:0.1176 14:0.003625 15:283.0 16:0.001963 17:0.07245 18:0.06045 19:31.6 20:10.6 21:243.6 22:0.001484 
1.0 0.9111328125 1:10.45 2:0.06371 3:8.595E-4 4:1676.0 5:0.002828 6:0.1106 7:0.55 8:29.25 9:209.1 10:348.6 11:0.009 12:7.906 13:0.0656 14:0.001333 15:201.7 16:0.001415 17:0.0526 18:0.05604 19:18.43 20:21.4 21:102.6 22:0.001033 
1.0 0.9111328125 1:17.0 2:0.1126 3:2.341E-4 4:1718.0 5:0.001625 6:0.06328 7:0.5768 8:39.55 9:190.4 10:112.5 11:0.00918 12:15.3 13:0.125 14:4.638E-4 15:188.9 16:0.001099 17:0.04174 18:0.06763 19:33.19 20:38.11 21:34.21 22:0.0019 
1.0 0.9111328125 1:15.18 2:0.08466 3:4.856E-4 4:1694.0 5:0.002353 6:0.09078 7:0.5358 8:35.56 9:203.6 10:240.6 11:0.009555 12:13.47 13:0.09525 14:0.001022 15:274.6 16:0.00137 17:0.05178 18:0.09374 19:28.99 20:26.17 21:98.78 22:0.004083 
1.0 0.9111328125 1:13.79 2:0.0872 3:4.272E-4 4:1705.0 5:0.002572 6:0.09953 7:0.5182 8:32.57 9:210.7 10:298.3 11:0.008971 12:16.83 13:0.1305 14:8.309E-4 15:185.5 16:0.00136 17:0.0513 18:0.07062 19:34.05 20:19.18 21:154.4 22:0.001114 
1.0 0.9111328125 1:16.21 2:0.09167 3:6.235E-4 4:1817.0 5:0.002901 6:0.1115 7:0.5276 8:36.39 9:182.0 10:397.1 11:0.009365 12:9.056 13:0.06949 14:0.001716 15:209.1 16:0.002254 17:0.08427 18:0.07868 19:20.84 20:42.86 21:279.1 22:0.001767 
1.0 0.9111328125 1:9.543 2:0.05015 3:2.404E-5 4:1716.0 5:5.801E-4 6:0.02172 7:0.6226 8:21.47 9:198.6 10:15.34 11:0.01047 12:5.377 13:0.02776 14:1.028E-4 15:165.4 16:5.756E-4 17:0.02159 18:0.05567 19:10.46 20:33.25 21:12.47 22:0.001931 
1.0 0.9111328125 1:9.97 2:0.05441 3:0.002268 4:1747.0 5:0.004573 6:0.1796 7:0.5463 8:31.52 9:202.4 10:948.5 11:0.008963 12:6.9 13:0.0598 14:0.003958 15:235.5 16:0.002077 17:0.07718 18:0.0486 19:18.72 20:16.45 21:350.4 22:0.001485 
1.0 0.9111328125 1:14.2 2:0.09125 3:0.002285 4:1623.0 5:0.004419 6:0.1726 7:0.5444 8:36.77 9:176.2 10:925.0 11:0.01012 12:16.08 13:0.1188 14:0.003674 15:230.9 16:0.003126 17:0.1173 18:0.08694 19:34.29 20:51.98 21:495.6 22:0.002406 
1.0 0.9111328125 1:11.82 2:0.07655 3:0.002497 4:1701.0 5:0.004771 6:0.1859 7:0.6158 8:34.85 9:184.7 10:1031.0 11:0.009211 12:10.24 13:0.1019 14:0.006116 15:187.7 16:0.002486 17:0.0915 18:0.07755 19:25.34 20:27.89 21:466.3 22:0.002136 
1.0 0.9111328125 1:11.85 2:0.07442 3:0.002823 4:1693.0 5:0.005567 6:0.2202 7:0.5477 8:34.73 9:210.1 10:1482.0 11:0.009222 12:8.545 13:0.07837 14:0.004482 15:267.9 16:0.002673 17:0.1021 18:0.0747 19:21.23 20:13.09 21:682.2 22:0.002997 
1.0 0.9111328125 1:19.18 2:0.1131 3:0.001003 4:1669.0 5:0.003044 6:0.1209 7:0.5151 8:46.87 9:206.7 10:483.4 11:0.01067 12:11.35 13:0.08255 14:0.001587 15:329.1 16:0.002019 17:0.07851 18:0.1058 19:25.83 20:28.48 21:329.2 22:0.005227 
1.0 0.9111328125 1:23.45 2:0.1533 3:0.003393 4:1682.0 5:0.005173 6:0.2094 7:0.5564 8:56.75 9:197.1 10:1349.0 11:0.008745 12:24.21 13:0.1821 14:0.005209 15:213.5 16:0.003133 17:0.1202 18:0.05557 19:48.52 20:27.09 21:692.5 22:6.727E-4 
1.0 0.9111328125 1:7.4 2:0.04504 3:4.281E-4 4:1691.0 5:0.002492 6:0.0953 7:0.5358 8:19.66 9:206.8 10:283.9 11:0.009494 12:7.823 13:0.0589 14:8.12E-4 15:275.6 16:0.00144 17:0.05362 18:0.07591 19:15.13 20:21.43 21:160.5 22:0.004744 
1.0 0.9111328125 1:22.32 2:0.158 3:0.002804 4:1712.0 5:0.003531 6:0.142 7:0.598 8:55.05 9:167.2 10:607.4 11:0.01044 12:25.44 13:0.1894 14:0.008285 15:264.4 16:0.002836 17:0.1071 18:0.08115 19:50.83 20:51.27 21:237.0 22:0.001662 
1.0 0.9111328125 1:9.72 2:0.06011 3:0.001051 4:1693.0 5:0.004056 6:0.1564 7:0.5257 8:24.27 9:209.9 10:750.3 11:0.009296 12:11.57 13:0.08482 14:0.001852 15:181.6 16:0.002165 17:0.08141 18:0.0687 19:19.89 20:23.32 21:426.1 22:0.001394 
1.0 0.9111328125 1:14.63 2:0.08851 3:7.24E-4 4:1720.0 5:0.003211 6:0.1265 7:0.52 8:36.27 9:209.7 10:529.7 11:0.009343 12:13.52 13:0.1086 14:0.001042 15:217.7 16:0.001827 17:0.0712 18:0.08201 19:30.19 20:20.75 21:367.5 22:0.001705 
1.0 0.9111328125 1:8.699 2:0.05143 3:4.861E-4 4:1652.0 5:0.002359 6:0.09044 7:0.5322 8:22.54 9:206.5 10:256.3 11:0.009391 12:11.44 13:0.08602 14:7.518E-4 15:219.8 16:0.001359 17:0.05059 18:0.06085 19:25.2 20:20.45 21:142.3 22:0.002407 
1.0 0.9111328125 1:11.62 2:0.06404 3:0.001457 4:1667.0 5:0.004433 6:0.1712 7:0.5387 8:28.48 9:210.8 10:902.5 11:0.00955 12:13.09 13:0.0858 14:0.002479 15:165.7 16:0.002461 17:0.09303 18:0.07621 19:21.11 20:15.08 21:522.4 22:0.001736 
1.0 0.9111328125 1:10.23 2:0.06177 3:6.928E-4 4:1670.0 5:0.002403 6:0.09212 7:0.5648 8:23.57 9:200.3 10:251.2 11:0.009816 12:16.59 13:0.1142 14:0.00193 15:191.6 16:0.001675 17:0.06212 18:0.0856 19:27.77 20:33.24 21:136.5 22:0.002391 
1.0 0.9111328125 1:10.89 2:0.06397 3:1.448E-4 4:1633.0 5:0.001624 6:0.06223 7:0.5305 8:26.0 9:181.0 10:113.3 11:0.009367 12:10.1 13:0.06785 14:3.927E-4 15:242.7 16:0.001054 17:0.03979 18:0.07976 19:19.98 20:39.52 21:63.11 22:0.001752 
1.0 0.9111328125 1:9.08 2:0.05273 3:1.679E-4 4:1685.0 5:0.001545 6:0.05887 7:0.5276 8:21.4 9:199.1 10:106.3 11:0.009136 12:12.99 13:0.09292 14:4.024E-4 15:216.2 16:0.001067 17:0.03976 18:0.07317 19:29.1 20:31.14 21:72.99 22:0.001023 
1.0 0.9111328125 1:20.91 2:0.1415 3:0.004276 4:1601.0 5:0.004695 6:0.1872 7:0.575 8:53.27 9:156.9 10:1056.0 11:0.01015 12:25.45 13:0.1895 14:0.008112 15:235.2 16:0.003472 17:0.126 18:0.08778 19:52.59 20:52.45 21:492.9 22:0.006732 
1.0 0.9111328125 1:7.252 2:0.04436 3:0.002211 4:1644.0 5:0.005671 6:0.2184 7:0.4536 8:21.32 9:215.1 10:1401.0 11:0.008802 12:9.375 13:0.08233 14:0.002661 15:188.9 16:0.002106 17:0.07694 18:0.06694 19:22.63 20:3.007 21:516.8 22:8.42E-4 
1.0 0.9111328125 1:13.06 2:0.07642 3:0.001124 4:1637.0 5:0.003415 6:0.1307 7:0.6272 8:32.59 9:143.1 10:472.3 11:0.01039 12:25.45 13:0.1556 14:0.00314 15:276.1 16:0.002955 17:0.1106 18:0.0723 19:51.78 20:69.4 21:151.9 22:0.003133 
1.0 0.9111328125 1:12.05 2:0.06608 3:2.136E-4 4:1666.0 5:0.001597 6:0.06171 7:0.565 8:28.93 9:184.5 10:110.7 11:0.009179 12:18.14 13:0.109 14:5.793E-4 15:173.0 16:0.001041 17:0.03953 18:0.05805 19:36.67 20:33.48 21:52.78 22:0.001434 
1.0 0.9111328125 1:18.4 2:0.1169 3:5.744E-4 4:1659.0 5:0.00243 6:0.09632 7:0.547 8:46.54 9:172.5 10:276.8 11:0.009293 12:18.01 13:0.1312 14:7.712E-4 15:269.3 16:0.001474 17:0.05689 18:0.05984 19:37.52 20:23.88 21:108.6 22:0.001274 
1.0 0.9111328125 1:9.813 2:0.05497 3:0.001231 4:1642.0 5:0.003356 6:0.1304 7:0.5592 8:26.59 9:194.2 10:510.6 11:0.009147 12:13.69 13:0.0898 14:0.002546 15:269.1 16:0.001904 17:0.07102 18:0.06558 19:29.59 20:31.5 21:197.2 22:0.001855 
1.0 0.9111328125 1:10.74 2:0.06281 3:0.002953 4:1627.0 5:0.005781 6:0.2233 7:0.5512 8:31.62 9:204.2 10:1459.0 11:0.008882 12:8.994 13:0.07254 14:0.004745 15:173.4 16:0.002899 17:0.106 18:0.06368 19:22.8 20:17.04 21:493.2 22:9.029E-4 
1.0 0.9111328125 1:13.97 2:0.0891 3:5.483E-4 4:1683.0 5:0.002742 6:0.108 7:0.5412 8:35.58 9:208.8 10:327.1 11:0.008968 12:19.86 13:0.144 14:7.089E-4 15:229.9 16:0.00125 17:0.04636 18:0.06231 19:41.84 20:15.28 21:47.62 22:7.578E-4 
1.0 0.9111328125 1:12.06 2:0.06498 3:5.432E-4 4:1721.0 5:0.003002 6:0.1154 7:0.5813 8:30.14 9:202.9 10:437.4 11:0.00962 12:9.88 13:0.07005 14:0.001238 15:311.9 16:0.002223 17:0.0835 18:0.09105 19:24.07 20:34.55 21:342.2 22:0.005428 
1.0 0.9111328125 1:8.492 2:0.05005 3:0.001206 4:1786.0 5:0.004316 6:0.1651 7:0.5467 8:19.88 9:203.4 10:812.6 11:0.009164 12:10.19 13:0.08648 14:0.001883 15:263.5 16:0.002212 17:0.08204 18:0.08035 19:23.01 20:15.59 21:375.6 22:0.001149 
1.0 0.9111328125 1:7.305 2:0.04735 3:0.002171 4:1576.0 5:0.005003 6:0.1902 7:0.5384 8:20.39 9:207.4 10:1039.0 11:0.008736 12:8.276 13:0.0703 14:0.002729 15:279.8 16:0.00217 17:0.0775 18:0.05878 19:20.84 20:19.22 21:304.9 22:8.833E-4 
1.0 0.9111328125 1:18.41 2:0.1115 3:5.728E-4 4:1661.0 5:0.002207 6:0.08771 7:0.5468 8:48.71 9:205.1 10:225.8 11:0.009421 12:20.8 13:0.1523 14:0.001038 15:281.9 16:0.00128 17:0.04861 18:0.06599 19:43.47 20:10.44 21:88.87 22:0.002239 
1.0 0.9111328125 1:10.17 2:0.06149 3:0.0021 4:1713.0 5:0.005042 6:0.1954 7:0.5845 8:30.7 9:209.0 10:1119.0 11:0.008826 12:11.25 13:0.1019 14:0.004111 15:188.8 16:0.002169 17:0.08066 18:0.07034 19:26.97 20:21.69 21:386.5 22:0.001198 
1.0 0.9111328125 1:26.26 2:0.1798 3:4.598E-4 4:1720.0 5:0.001943 6:0.07897 7:0.528 8:65.53 9:191.3 10:186.9 11:0.008887 12:22.08 13:0.1664 14:7.846E-4 15:192.0 16:0.001029 17:0.04111 18:0.06602 19:47.4 20:27.13 21:90.18 22:0.001554 
1.0 0.9111328125 1:8.151 2:0.04542 3:1.267E-4 4:1743.0 5:0.001293 6:0.04913 7:0.5937 8:19.46 9:190.6 10:80.16 11:0.01017 12:7.262 13:0.06729 14:4.933E-4 15:205.3 16:0.001139 17:0.04249 18:0.07764 19:18.04 20:41.25 21:64.87 22:0.003267 
1.0 0.9111328125 1:10.58 2:0.06833 3:8.303E-4 4:1660.0 5:0.002795 6:0.1091 7:0.564 8:28.24 9:182.0 10:366.2 11:0.009029 12:9.032 13:0.08022 14:0.001464 15:185.5 16:0.001765 17:0.06645 18:0.05978 19:21.68 20:33.25 21:220.6 22:0.001392 
1.0 0.9111328125 1:8.859 2:0.05319 3:8.563E-4 4:1676.0 5:0.00352 6:0.1356 7:0.5687 8:23.93 9:202.8 10:530.2 11:0.008992 12:10.9 13:0.08248 14:0.001599 15:198.5 16:0.001918 17:0.07188 18:0.06536 19:25.16 20:26.88 21:192.5 22:7.878E-4 
1.0 0.9111328125 1:17.21 2:0.1213 3:3.202E-4 4:1679.0 5:0.001599 6:0.06579 7:0.5375 8:46.96 9:210.8 10:149.2 11:0.008848 12:13.29 13:0.1175 14:4.854E-4 15:243.6 16:9.649E-4 17:0.04104 18:0.07545 19:32.19 20:17.86 21:133.3 22:8.45E-4 
1.0 0.9111328125 1:19.25 2:0.104 3:7.648E-5 4:1926.0 5:0.001121 6:0.04311 7:0.5719 8:42.53 9:193.3 10:72.3 11:0.01027 12:9.72 13:0.06605 14:2.433E-4 15:235.3 16:0.00113 17:0.04303 18:0.07644 19:22.02 20:40.55 21:95.88 22:0.002161 
1.0 0.9111328125 1:10.87 2:0.07218 3:0.001491 4:1649.0 5:0.003192 6:0.1224 7:0.5979 8:29.94 9:200.4 10:437.2 11:0.00885 12:14.73 13:0.1163 14:0.004092 15:177.2 16:0.001812 17:0.0643 18:0.06706 19:29.93 20:25.31 21:154.6 22:9.468E-4 
1.0 0.9111328125 1:9.45 2:0.05061 3:2.82E-4 4:1774.0 5:0.001904 6:0.07291 7:0.5776 8:21.83 9:192.5 10:165.3 11:0.009654 12:4.059 13:0.02536 14:5.915E-4 15:173.0 16:0.001236 17:0.04667 18:0.0524 19:9.093 20:25.73 21:107.4 22:0.002738 
1.0 0.9111328125 1:13.02 2:0.08528 3:0.005135 4:1609.0 5:0.005242 6:0.2079 7:0.6223 8:37.59 9:185.6 10:1232.0 11:0.00966 12:13.23 13:0.1144 14:0.01019 15:187.6 16:0.003682 17:0.1374 18:0.06425 19:31.16 20:37.58 21:296.6 22:0.001955 
1.0 0.9111328125 1:11.76 2:0.07429 3:0.001114 4:1687.0 5:0.003998 6:0.1555 7:0.5378 8:30.35 9:207.3 10:705.0 11:0.00916 12:7.471 13:0.06059 14:0.001633 15:202.7 16:0.001846 17:0.06963 18:0.06997 19:18.25 20:13.4 21:250.4 22:0.0026 
1.0 0.9111328125 1:13.43 2:0.07624 3:2.683E-4 4:1697.0 5:0.002023 6:0.07885 7:0.5698 8:33.11 9:194.9 10:180.6 11:0.00906 12:17.35 13:0.1234 14:4.743E-4 15:258.7 16:0.001345 17:0.05137 18:0.0631 19:36.62 20:34.89 21:81.64 22:0.001274 
1.0 0.9111328125 1:9.993 2:0.0612 3:9.582E-4 4:1671.0 5:0.002989 6:0.1159 7:0.5415 8:28.44 9:205.4 10:382.0 11:0.009176 12:8.1 13:0.05838 14:0.001756 15:215.8 16:0.00176 17:0.06491 18:0.06574 19:19.89 20:25.62 21:100.1 22:0.001598 
1.0 0.9111328125 1:10.47 2:0.06139 3:0.001136 4:1634.0 5:0.003385 6:0.1318 7:0.5138 8:29.18 9:202.5 10:517.6 11:0.009137 12:10.67 13:0.08373 14:0.001634 15:218.9 16:0.001848 17:0.06892 18:0.06434 19:23.8 20:27.72 21:227.9 22:0.001089 
1.0 0.9111328125 1:8.226 2:0.05258 3:0.004808 4:1620.0 5:0.005971 6:0.2316 7:0.5915 8:24.01 9:210.8 10:1487.0 11:0.008894 12:8.773 13:0.07609 14:0.009406 15:222.5 16:0.002692 17:0.09309 18:0.05236 19:19.84 20:18.43 21:263.0 22:2.284E-4 
1.0 0.9111328125 1:7.975 2:0.05331 3:0.00101 4:1692.0 5:0.003717 6:0.1434 7:0.5467 8:23.58 9:214.6 10:587.3 11:0.008875 12:8.684 13:0.08588 14:0.001423 15:185.0 16:0.001474 17:0.0544 18:0.07248 19:23.33 20:5.138 21:181.7 22:8.816E-4 
1.0 0.9111328125 1:16.97 2:0.1126 3:0.003535 4:1648.0 5:0.003639 6:0.145 7:0.5701 8:46.76 9:192.0 10:654.0 11:0.01022 12:26.22 13:0.1955 14:0.009792 15:275.1 16:0.002819 17:0.1049 18:0.06649 19:54.06 20:43.09 21:349.5 22:0.001902 
1.0 0.9111328125 1:12.5 2:0.08339 3:8.302E-4 4:1711.0 5:0.002776 6:0.1086 7:0.5443 8:32.95 9:199.9 10:345.1 11:0.008973 12:9.551 13:0.0763 14:0.001268 15:254.3 16:0.001282 17:0.04813 18:0.05339 19:22.48 20:12.58 21:134.7 22:0.001819 
1.0 0.9111328125 1:10.7 2:0.06692 3:0.003798 4:1637.0 5:0.005569 6:0.2153 7:0.6292 8:32.04 9:161.5 10:1333.0 11:0.009249 12:16.68 13:0.1326 14:0.006881 15:176.7 16:0.002957 17:0.1054 18:0.05019 19:36.35 20:42.67 21:358.0 22:0.00132 
1.0 0.9111328125 1:14.25 2:0.09203 3:9.395E-4 4:1672.0 5:0.003069 6:0.1219 7:0.5223 8:44.55 9:214.9 10:439.6 11:0.008942 12:13.0 13:0.1237 14:0.001082 15:177.0 16:0.001333 17:0.04918 18:0.0589 19:30.62 20:4.702 21:128.1 22:0.001199 
1.0 0.9111328125 1:10.06 2:0.05841 3:1.422E-4 4:1783.0 5:0.001399 6:0.05363 7:0.5744 8:23.92 9:192.5 10:106.5 11:0.009366 12:4.564 13:0.04409 14:5.186E-4 15:188.7 16:0.001077 17:0.04083 18:0.06613 19:12.02 20:26.14 21:99.03 22:0.001205 
1.0 0.9111328125 1:13.87 2:0.08469 3:0.002249 4:1672.0 5:0.005174 6:0.204 7:0.5014 8:34.48 9:213.5 10:1246.0 11:0.009035 12:14.65 13:0.09798 14:0.002192 15:153.8 16:0.002206 17:0.08247 18:0.0592 19:18.88 20:8.718 21:450.7 22:0.002388 
1.0 0.9111328125 1:18.0 2:0.1159 3:0.001107 4:1719.0 5:0.003511 6:0.1372 7:0.4695 8:43.35 9:197.0 10:577.7 11:0.009542 12:14.0 13:0.09688 14:0.00146 15:342.2 16:0.001854 17:0.06988 18:0.08613 19:28.82 20:33.19 21:303.6 22:0.004614 
1.0 0.9111328125 1:21.62 2:0.1362 3:5.903E-4 4:1598.0 5:0.002486 6:0.09999 7:0.5124 8:52.61 9:204.5 10:288.2 11:0.00963 12:18.75 13:0.1504 14:8.708E-4 15:315.1 16:0.001224 17:0.0464 18:0.09735 19:38.92 20:29.04 21:82.89 22:0.005991 
1.0 0.9111328125 1:12.82 2:0.07555 3:0.001182 4:1689.0 5:0.004195 6:0.163 7:0.5439 8:30.82 9:210.0 10:770.6 11:0.009332 12:17.83 13:0.1165 14:0.002152 15:196.0 16:0.002563 17:0.09619 18:0.0668 19:37.82 20:23.14 21:337.2 22:0.001766 
1.0 0.9111328125 1:9.675 2:0.0545 3:0.002134 4:1671.0 5:0.005201 6:0.2002 7:0.5236 8:24.27 9:208.5 10:1154.0 11:0.009045 12:10.47 13:0.07927 14:0.004356 15:281.4 16:0.002385 17:0.08728 18:0.07337 19:20.97 20:17.69 21:293.2 22:0.00248 
1.0 0.9111328125 1:14.33 2:0.08766 3:3.79E-4 4:1663.0 5:0.002414 6:0.09468 7:0.5356 8:36.73 9:212.2 10:259.1 11:0.00904 12:9.538 13:0.08241 14:4.802E-4 15:254.5 16:0.001145 17:0.04312 18:0.07913 19:22.85 20:15.39 21:82.74 22:9.16E-4 
1.0 0.9111328125 1:23.38 2:0.166 3:0.005081 4:1649.0 5:0.006179 6:0.2566 7:0.5266 8:64.91 9:209.8 10:1964.0 11:0.00892 12:14.07 13:0.1214 14:0.006379 15:182.9 16:0.00252 17:0.09702 18:0.06115 19:30.02 20:16.26 21:675.1 22:0.001564 
1.0 0.9111328125 1:9.276 2:0.05355 3:0.00134 4:1642.0 5:0.003458 6:0.1331 7:0.585 8:26.46 9:179.6 10:511.2 11:0.008942 12:9.094 13:0.06932 14:0.002531 15:166.1 16:0.002035 17:0.07372 18:0.05974 19:21.84 20:31.73 21:169.5 22:7.636E-4 
1.0 0.9111328125 1:10.4 2:0.05617 3:2.423E-5 4:1613.0 5:5.577E-4 6:0.02129 7:0.5766 8:23.67 9:207.1 10:15.94 11:0.008942 12:12.63 13:0.08297 14:6.841E-5 15:322.8 16:5.385E-4 17:0.02032 18:0.1101 19:26.91 20:24.15 21:20.26 22:0.00173 
1.0 0.9111328125 1:11.08 2:0.07004 3:0.002114 4:1683.0 5:0.004192 6:0.1642 7:0.5524 8:29.65 9:201.3 10:920.6 11:0.009429 12:9.414 13:0.07698 14:0.003298 15:208.5 16:0.002645 17:0.101 18:0.06458 19:21.52 20:28.0 21:621.5 22:0.001632 
1.0 0.9111328125 1:6.741 2:0.04262 3:0.001056 4:1755.0 5:0.004519 6:0.1703 7:0.5624 8:15.86 9:200.2 10:927.3 11:0.00887 12:7.781 13:0.06325 14:0.002706 15:218.0 16:0.002559 17:0.0938 18:0.05926 19:16.28 20:25.31 21:528.0 22:0.00173 
1.0 0.9111328125 1:9.126 2:0.05472 3:6.977E-4 4:1671.0 5:0.002897 6:0.1113 7:0.5713 8:23.23 9:203.3 10:362.1 11:0.009089 12:7.259 13:0.06014 14:0.001445 15:196.3 16:0.001764 17:0.06599 18:0.0672 19:15.81 20:29.76 21:167.3 22:7.963E-4 
1.0 0.9111328125 1:9.393 2:0.05657 3:0.002715 4:1609.0 5:0.005675 6:0.2173 7:0.5983 8:30.54 9:202.5 10:1366.0 11:0.008538 12:8.548 13:0.08443 14:0.003729 15:151.8 16:0.002881 17:0.1019 18:0.05014 19:25.39 20:27.73 21:416.1 22:3.161E-4 
1.0 0.9111328125 1:12.74 2:0.08451 3:0.005097 4:1576.0 5:0.006002 6:0.2378 7:0.5848 8:35.67 9:180.2 10:1711.0 11:0.009302 12:15.7 13:0.1295 14:0.008191 15:304.2 16:0.003509 17:0.1298 18:0.07891 19:34.56 20:30.06 21:573.9 22:0.004037 
1.0 0.9111328125 1:13.47 2:0.0696 3:1.596E-4 4:1802.0 5:0.001589 6:0.06086 7:0.5593 8:29.88 9:203.7 10:110.3 11:0.009324 12:4.931 13:0.03165 14:3.987E-4 15:239.6 16:9.94E-4 17:0.03686 18:0.06567 19:11.33 20:31.06 21:47.63 22:9.02E-4 
1.0 0.9111328125 1:18.21 2:0.1095 3:3.186E-4 4:1639.0 5:0.001728 6:0.06943 7:0.5692 8:46.27 9:214.7 10:148.9 11:0.009393 12:15.91 13:0.1047 14:4.5E-4 15:219.0 16:8.879E-4 17:0.0354 18:0.07034 19:33.73 20:5.506 21:83.58 22:0.003497 
1.0 0.9111328125 1:8.251 2:0.0512 3:0.002412 4:1663.0 5:0.005115 6:0.1977 7:0.5435 8:22.01 9:192.8 10:1169.0 11:0.009072 12:6.738 13:0.05445 14:0.004357 15:237.6 16:0.002718 17:0.1023 18:0.06654 19:16.09 20:29.62 21:489.8 22:0.001506 
1.0 0.9111328125 1:14.73 2:0.08507 3:2.414E-4 4:1664.0 5:0.001587 6:0.06222 7:0.5693 8:38.63 9:211.0 10:114.4 11:0.00943 12:12.28 13:0.08931 14:4.039E-4 15:258.7 16:9.093E-4 17:0.03523 18:0.07473 19:27.41 20:14.5 21:53.88 22:0.001998 
1.0 0.9111328125 1:12.38 2:0.07887 3:0.002617 4:1717.0 5:0.004573 6:0.1788 7:0.5421 8:34.06 9:185.2 10:946.1 11:0.009529 12:13.87 13:0.1069 14:0.004443 15:204.6 16:0.002547 17:0.09381 18:0.07191 19:30.75 20:11.38 21:334.7 22:7.836E-4 
1.0 0.9111328125 1:11.63 2:0.06899 3:0.001315 4:1845.0 5:0.004091 6:0.1591 7:0.5499 8:29.77 9:201.2 10:744.3 11:0.009127 12:7.074 13:0.07253 14:0.002355 15:260.3 16:0.002085 17:0.0779 18:0.05582 19:18.89 20:18.74 21:346.1 22:0.00243 
1.0 0.9111328125 1:11.05 2:0.06863 3:0.001873 4:1626.0 5:0.00563 6:0.2159 7:0.4898 8:27.95 9:212.7 10:1432.0 11:0.009331 12:17.07 13:0.1302 14:0.002969 15:223.2 16:0.002925 17:0.1094 18:0.07835 19:32.21 20:12.27 21:645.7 22:0.00353 
1.0 0.9111328125 1:17.35 2:0.1141 3:6.936E-4 4:1695.0 5:0.00252 6:0.09929 7:0.536 8:43.4 9:192.7 10:328.7 11:0.009635 12:22.05 13:0.1635 14:0.001213 15:255.2 16:0.001799 17:0.0695 18:0.0756 19:45.6 20:31.64 21:255.5 22:0.001847 
1.0 0.9111328125 1:17.05 2:0.1098 3:0.00263 4:1637.0 5:0.004868 6:0.195 7:0.5304 8:45.31 9:210.5 10:1106.0 11:0.008763 12:11.29 13:0.1087 14:0.003509 15:207.7 16:0.001883 17:0.07056 18:0.05822 19:27.63 20:15.46 21:287.2 22:8.747E-4 
1.0 0.9111328125 1:15.94 2:0.1008 3:0.002001 4:1678.0 5:0.004016 6:0.155 7:0.5514 8:40.18 9:201.5 10:694.3 11:0.009185 12:22.55 13:0.1658 14:0.005994 15:186.0 16:0.002499 17:0.09062 18:0.08348 19:42.83 20:26.16 21:301.3 22:0.001074 
1.0 0.9111328125 1:17.17 2:0.1214 3:0.002631 4:1616.0 5:0.004771 6:0.1917 7:0.5445 8:49.98 9:207.9 10:1117.0 11:0.009466 12:16.28 13:0.1581 14:0.003185 15:280.0 16:0.002449 17:0.09154 18:0.064 19:36.79 20:25.4 21:441.6 22:0.004246 
1.0 0.9111328125 1:10.7 2:0.06267 3:0.001325 4:1683.0 5:0.004215 6:0.1607 7:0.559 8:27.69 9:201.1 10:825.8 11:0.009908 12:13.6 13:0.1046 14:0.003622 15:183.9 16:0.003173 17:0.1175 18:0.09103 19:30.62 20:32.99 21:564.2 22:0.002249 
-1.0 0.91015625 1:9.466 2:0.05004 3:2.174E-4 4:1781.0 5:0.001877 6:0.07157 7:0.5911 8:21.36 9:208.3 10:154.6 11:0.009678 12:4.246 13:0.03032 14:4.772E-4 15:346.9 16:0.001204 17:0.04532 18:0.0888 19:9.96 20:25.63 21:85.88 22:0.002343 
-1.0 0.91015625 1:17.37 2:0.09932 3:5.098E-4 4:1685.0 5:0.002295 6:0.08917 7:0.554 8:43.89 9:211.8 10:252.0 11:0.009178 12:9.552 13:0.05763 14:7.58E-4 15:244.2 16:0.001204 17:0.04537 18:0.07016 19:20.21 20:9.811 21:142.8 22:0.002352 
-1.0 0.9111328125 1:19.93 2:0.1415 3:0.003837 4:1587.0 5:0.00433 6:0.1724 7:0.6279 8:56.07 9:122.1 10:855.9 11:0.01057 12:24.38 13:0.2006 14:0.006917 15:201.0 16:0.003395 17:0.1241 18:0.04569 19:50.5 20:23.04 21:235.7 22:0.002068 
-1.0 0.9111328125 1:11.81 2:0.06944 3:9.563E-5 4:1779.0 5:0.001294 6:0.04971 7:0.564 8:28.19 9:198.7 10:75.32 11:0.009075 12:5.98 13:0.04677 14:1.84E-4 15:179.5 16:7.035E-4 17:0.02627 18:0.05894 19:14.55 20:33.95 21:45.49 22:0.00223 
-1.0 0.9111328125 1:12.29 2:0.07785 3:3.686E-4 4:1730.0 5:0.002104 6:0.08262 7:0.5631 8:35.39 9:205.0 10:215.4 11:0.009265 12:7.85 13:0.05812 14:7.257E-4 15:269.1 16:0.001182 17:0.04574 18:0.05522 19:18.76 20:19.57 21:128.6 22:0.001388 
-1.0 0.9111328125 1:11.48 2:0.07344 3:0.001916 4:1771.0 5:0.004348 6:0.169 7:0.5708 8:31.89 9:191.7 10:820.8 11:0.009032 12:7.735 13:0.0632 14:0.002376 15:289.0 16:0.001784 17:0.0653 18:0.06287 19:18.98 20:31.63 21:273.3 22:0.003594 
-1.0 0.9111328125 1:12.61 2:0.0738 3:0.001358 4:1694.0 5:0.003942 6:0.1535 7:0.5431 8:32.08 9:214.6 10:719.5 11:0.008967 12:7.135 13:0.04979 14:0.002012 15:201.3 16:0.001891 17:0.07073 18:0.05344 19:14.72 20:5.854 21:385.4 22:6.79E-4 
-1.0 0.9111328125 1:11.42 2:0.06518 3:2.031E-4 4:1785.0 5:0.001928 6:0.07364 7:0.5589 8:26.34 9:197.5 10:176.8 11:0.008986 12:5.563 13:0.0334 14:3.554E-4 15:157.6 16:0.001093 17:0.04075 18:0.06353 19:12.41 20:44.3 21:109.1 22:0.001048 
-1.0 0.9111328125 1:12.16 2:0.08473 3:6.404E-4 4:1794.0 5:0.00385 6:0.1443 7:0.523 8:32.98 9:209.1 10:605.6 11:0.009653 12:11.17 13:0.1092 14:0.00101 15:180.7 16:0.001891 17:0.06927 18:0.07511 19:27.4 20:17.23 21:219.1 22:0.002419 
-1.0 0.9111328125 1:12.34 2:0.06713 3:3.499E-4 4:1599.0 5:0.002105 6:0.08014 7:0.5889 8:27.72 9:196.8 10:212.2 11:0.01003 12:14.0 13:0.08898 14:9.567E-4 15:214.0 16:0.00185 17:0.06833 18:0.07025 19:31.79 20:37.46 21:157.3 22:0.001926 
-1.0 0.9111328125 1:13.96 2:0.06737 3:1.494E-4 4:1804.0 5:0.001228 6:0.04687 7:0.6155 8:29.5 9:159.6 10:92.23 11:0.009507 12:3.661 13:0.03119 14:3.747E-4 15:196.7 16:0.001111 17:0.04148 18:0.06094 19:8.78 20:29.36 21:115.1 22:0.001497 
-1.0 0.9111328125 1:19.43 2:0.1402 3:9.752E-4 4:1785.0 5:0.003184 6:0.1276 7:0.5629 8:50.89 9:206.6 10:493.9 11:0.008795 12:13.75 13:0.1126 14:0.001972 15:220.2 16:0.001475 17:0.05752 18:0.06417 19:27.51 20:20.41 21:241.5 22:6.63E-4 
-1.0 0.9111328125 1:11.82 2:0.07655 3:0.002497 4:1701.0 5:0.004771 6:0.1859 7:0.6158 8:34.85 9:184.7 10:1031.0 11:0.009211 12:10.24 13:0.1019 14:0.006116 15:187.7 16:0.002486 17:0.0915 18:0.07755 19:25.34 20:27.89 21:466.3 22:0.002136 
-1.0 0.9111328125 1:11.22 2:0.05345 3:1.597E-4 4:1863.0 5:0.001687 6:0.06366 7:0.5774 8:23.81 9:172.7 10:120.3 11:0.009395 12:4.473 13:0.03081 14:6.106E-4 15:198.2 16:0.001147 17:0.04227 18:0.05237 19:7.987 20:47.33 21:49.57 22:0.002641 
-1.0 0.9111328125 1:11.39 2:0.06131 3:7.683E-4 4:1799.0 5:0.003822 6:0.1464 7:0.5796 8:25.57 9:206.6 10:657.6 11:0.00994 12:4.693 13:0.04006 14:0.001427 15:209.2 16:0.002623 17:0.09761 18:0.0587 19:10.16 20:21.96 21:417.3 22:0.001503 
-1.0 0.9111328125 1:13.81 2:0.09411 3:0.002377 4:1656.0 5:0.004251 6:0.1705 7:0.5505 8:39.68 9:206.9 10:942.7 11:0.009456 12:9.071 13:0.08038 14:0.002964 15:224.8 16:0.002526 17:0.1004 18:0.05752 19:22.02 20:23.29 21:594.7 22:0.003158 
-1.0 0.9111328125 1:9.841 2:0.05991 3:0.004168 4:1717.0 5:0.004927 6:0.1905 7:0.59 8:25.68 9:183.3 10:1218.0 11:0.009376 12:7.612 13:0.06158 14:0.009918 15:262.0 16:0.003688 17:0.1346 18:0.08133 19:19.02 20:23.47 21:770.3 22:0.00104 
-1.0 0.9111328125 1:11.5 2:0.06389 3:3.468E-4 4:1784.0 5:0.002508 6:0.09638 7:0.5585 8:25.76 9:205.9 10:314.1 11:0.009595 12:6.896 13:0.04823 14:5.68E-4 15:241.3 16:0.001534 17:0.05851 18:0.08352 19:11.24 20:30.15 21:221.8 22:0.002161 
-1.0 0.9111328125 1:12.09 2:0.06833 3:7.712E-5 4:1734.0 5:0.001001 6:0.03843 7:0.6007 8:27.65 9:199.5 10:47.75 11:0.009357 12:6.624 13:0.0422 14:2.728E-4 15:329.5 16:7.141E-4 17:0.027 18:0.1028 19:13.82 20:33.43 21:32.19 22:0.00361 
-1.0 0.9111328125 1:25.57 2:0.1838 3:4.011E-4 4:1793.0 5:0.001798 6:0.07411 7:0.5518 8:70.81 9:211.1 10:170.6 11:0.009381 12:14.06 13:0.1348 14:7.218E-4 15:332.1 16:9.095E-4 17:0.0361 18:0.07041 19:33.05 20:5.547 21:94.35 22:0.00361 
-1.0 0.9111328125 1:12.5 2:0.0735 3:1.542E-4 4:1769.0 5:0.0013 6:0.0504 7:0.6247 8:30.43 9:179.6 10:94.94 11:0.009357 12:6.498 13:0.0386 14:7.114E-4 15:156.4 16:0.001146 17:0.04376 18:0.08533 19:14.05 20:38.05 21:96.45 22:0.001004 
-1.0 0.9111328125 1:19.74 2:0.1157 3:7.149E-4 4:1616.0 5:0.00253 6:0.1036 7:0.5066 8:48.25 9:214.3 10:304.2 11:0.00886 12:8.483 13:0.0584 14:7.363E-4 15:183.5 16:9.483E-4 17:0.03726 18:0.05393 19:18.05 20:8.377 21:41.83 22:6.543E-4 
-1.0 0.9111328125 1:8.16 2:0.05011 3:0.001543 4:1641.0 5:0.003904 6:0.1495 7:0.563 8:20.12 9:206.4 10:634.4 11:0.009238 12:10.12 13:0.07641 14:0.00308 15:191.1 16:0.002201 17:0.08032 18:0.05557 19:13.22 20:22.37 21:206.2 22:0.002739 
-1.0 0.9111328125 1:14.08 2:0.0875 3:2.734E-4 4:1739.0 5:0.001799 6:0.07066 7:0.5835 8:37.88 9:204.7 10:150.6 11:0.009476 12:8.742 13:0.08554 14:6.223E-4 15:191.9 16:9.795E-4 17:0.03719 18:0.0598 19:22.19 20:21.47 21:61.04 22:0.001666 
-1.0 0.9111328125 1:12.98 2:0.08892 3:0.002215 4:1606.0 5:0.004274 6:0.1713 7:0.5334 8:40.11 9:213.2 10:846.2 11:0.00903 12:10.07 13:0.07781 14:0.001827 15:255.2 16:0.001532 17:0.05608 18:0.05245 19:21.21 20:9.753 21:213.1 22:0.003407 
-1.0 0.9111328125 1:8.151 2:0.04542 3:1.267E-4 4:1743.0 5:0.001293 6:0.04913 7:0.5937 8:19.46 9:190.6 10:80.16 11:0.01017 12:7.262 13:0.06729 14:4.933E-4 15:205.3 16:0.001139 17:0.04249 18:0.07764 19:18.04 20:41.25 21:64.87 22:0.003267 
-1.0 0.9111328125 1:18.37 2:0.1047 3:3.564E-4 4:1736.0 5:0.002262 6:0.08734 7:0.5117 8:43.14 9:214.8 10:225.6 11:0.00912 12:6.854 13:0.04659 14:5.444E-4 15:252.8 16:0.001009 17:0.03687 18:0.068 19:12.78 20:3.257 21:103.8 22:0.003284 
-1.0 0.9111328125 1:9.45 2:0.05061 3:2.82E-4 4:1774.0 5:0.001904 6:0.07291 7:0.5776 8:21.83 9:192.5 10:165.3 11:0.009654 12:4.059 13:0.02536 14:5.915E-4 15:173.0 16:0.001236 17:0.04667 18:0.0524 19:9.093 20:25.73 21:107.4 22:0.002738 
-1.0 0.9111328125 1:10.68 2:0.05587 3:2.245E-4 4:1712.0 5:0.002088 6:0.07991 7:0.5896 8:23.4 9:211.3 10:191.4 11:0.0103 12:4.781 13:0.03221 14:6.377E-4 15:328.0 16:0.001365 17:0.05146 18:0.095 19:7.81 20:18.24 21:95.56 22:0.006505 
-1.0 0.9111328125 1:12.77 2:0.07215 3:2.002E-4 4:1731.0 5:0.0018 6:0.06963 7:0.5467 8:29.65 9:212.4 10:151.5 11:0.009514 12:8.316 13:0.06966 14:3.508E-4 15:195.1 16:0.001266 17:0.04855 18:0.07018 19:19.2 20:13.55 21:115.8 22:0.001361 
-1.0 0.9111328125 1:19.81 2:0.1259 3:0.002672 4:1595.0 5:0.004605 6:0.1862 7:0.593 8:52.16 9:180.3 10:1029.0 11:0.009366 12:17.96 13:0.1419 14:0.004194 15:249.1 16:0.002562 17:0.0955 18:0.08933 19:39.17 20:36.91 21:358.5 22:0.003234 
-1.0 0.9111328125 1:11.01 2:0.05915 3:0.001103 4:1704.0 5:0.003395 6:0.1322 7:0.573 8:31.64 9:211.0 10:515.3 11:0.009118 12:6.547 13:0.04943 14:0.00179 15:210.0 16:0.001775 17:0.06636 18:0.04392 19:15.9 20:17.18 21:214.6 22:5.878E-4 
-1.0 0.9111328125 1:10.98 2:0.06619 3:5.919E-4 4:1695.0 5:0.002606 6:0.1016 7:0.5399 8:27.33 9:212.4 10:372.8 11:0.009648 12:10.83 13:0.0829 14:0.00131 15:205.7 16:0.001927 17:0.07483 18:0.08748 19:21.81 20:11.38 21:422.7 22:0.001549 
-1.0 0.9111328125 1:7.302 2:0.04067 3:3.849E-4 4:1928.0 5:0.002369 6:0.09073 7:0.5729 8:17.45 9:200.3 10:254.9 11:0.009654 12:4.264 13:0.02942 14:8.138E-4 15:306.2 16:0.00142 17:0.05285 18:0.06548 19:7.218 20:23.17 21:134.0 22:0.002156 
-1.0 0.9111328125 1:11.34 2:0.0614 3:1.078E-4 4:1739.0 5:0.00123 6:0.04693 7:0.6035 8:25.67 9:196.4 10:84.84 11:0.01 12:4.364 13:0.02844 14:4.093E-4 15:280.4 16:0.001099 17:0.04134 18:0.08429 19:9.631 20:35.37 21:88.96 22:0.002473 
-1.0 0.9111328125 1:12.11 2:0.06887 3:9.458E-4 4:1688.0 5:0.003193 6:0.1261 7:0.5488 8:36.94 9:206.9 10:526.7 11:0.008843 12:5.571 13:0.04754 14:0.001551 15:215.9 16:0.001822 17:0.07014 18:0.05529 19:16.12 20:18.94 21:358.3 22:8.939E-4 
-1.0 0.9111328125 1:9.066 2:0.05041 3:0.002062 4:1839.0 5:0.004085 6:0.1571 7:0.5702 8:23.48 9:198.7 10:853.2 11:0.00936 12:5.526 13:0.04687 14:0.004673 15:288.8 16:0.003134 17:0.1172 18:0.06439 19:15.14 20:25.36 21:641.2 22:0.001436 
-1.0 0.9111328125 1:16.51 2:0.1087 3:0.001511 4:1734.0 5:0.002777 6:0.1102 7:0.687 8:46.91 9:139.3 10:360.0 11:0.00945 12:13.16 13:0.1127 14:0.003508 15:222.7 16:0.001944 17:0.07315 18:0.05586 19:30.04 20:27.37 21:151.1 22:0.001137 
-1.0 0.9111328125 1:9.781 2:0.06194 3:0.005144 4:1597.0 5:0.005488 6:0.2144 7:0.6195 8:28.5 9:194.6 10:1306.0 11:0.009236 12:9.512 13:0.08533 14:0.008395 15:207.7 16:0.003162 17:0.1134 18:0.05905 19:24.91 20:23.79 21:414.2 22:0.00149 
-1.0 0.9111328125 1:8.568 2:0.05044 3:0.004584 4:1703.0 5:0.005224 6:0.1995 7:0.5891 8:21.29 9:203.5 10:1233.0 11:0.009393 12:4.802 13:0.03394 14:0.01043 15:303.9 16:0.003036 17:0.1099 18:0.04358 19:10.44 20:14.92 21:627.9 22:0.001523 
-1.0 0.9111328125 1:13.2 2:0.08019 3:6.996E-4 4:1797.0 5:0.003231 6:0.1257 7:0.5555 8:33.14 9:214.2 10:536.2 11:0.009412 12:5.787 13:0.05491 14:0.001022 15:236.8 16:0.001868 17:0.07188 18:0.06947 19:15.42 20:6.432 21:410.2 22:0.003961 
-1.0 0.9111328125 1:12.46 2:0.06797 3:1.559E-4 4:1769.0 5:0.001573 6:0.06072 7:0.5326 8:27.65 9:190.0 10:118.1 11:0.00917 12:10.34 13:0.06511 14:2.646E-4 15:172.2 16:9.079E-4 17:0.03456 18:0.05231 19:11.35 20:23.44 21:72.99 22:9.504E-4 
-1.0 0.9111328125 1:13.96 2:0.07501 3:0.001197 4:1734.0 5:0.002958 6:0.1143 7:0.588 8:32.53 9:190.6 10:416.6 11:0.01034 12:6.991 13:0.04414 14:0.003781 15:427.7 16:0.001986 17:0.07417 18:0.09749 19:15.02 20:23.06 21:219.8 22:0.005052 
-1.0 0.9111328125 1:10.67 2:0.05782 3:8.938E-5 4:1818.0 5:0.001265 6:0.04845 7:0.5903 8:24.79 9:199.1 10:69.04 11:0.009602 12:5.35 13:0.03492 14:4.046E-4 15:306.4 16:8.534E-4 17:0.03206 18:0.09542 19:12.02 20:31.83 21:35.67 22:0.002402 
-1.0 0.9111328125 1:9.393 2:0.05657 3:0.002715 4:1609.0 5:0.005675 6:0.2173 7:0.5983 8:30.54 9:202.5 10:1366.0 11:0.008538 12:8.548 13:0.08443 14:0.003729 15:151.8 16:0.002881 17:0.1019 18:0.05014 19:25.39 20:27.73 21:416.1 22:3.161E-4 
-1.0 0.9111328125 1:11.79 2:0.06667 3:3.92E-4 4:1766.0 5:0.00236 6:0.09073 7:0.6246 8:27.67 9:190.2 10:244.5 11:0.009041 12:5.509 13:0.03385 14:0.001178 15:201.7 16:0.001342 17:0.05022 18:0.08476 19:12.06 20:32.5 21:108.1 22:9.559E-4 
-1.0 0.9111328125 1:13.23 2:0.08528 3:4.763E-4 4:1683.0 5:0.002249 6:0.08852 7:0.5387 8:34.43 9:204.7 10:283.2 11:0.009289 12:17.17 13:0.1237 14:0.001016 15:217.8 16:0.00155 17:0.05993 18:0.06409 19:36.79 20:21.6 21:257.1 22:0.002487 
-1.0 0.9111328125 1:13.47 2:0.0696 3:1.596E-4 4:1802.0 5:0.001589 6:0.06086 7:0.5593 8:29.88 9:203.7 10:110.3 11:0.009324 12:4.931 13:0.03165 14:3.987E-4 15:239.6 16:9.94E-4 17:0.03686 18:0.06567 19:11.33 20:31.06 21:47.63 22:9.02E-4 
-1.0 0.9111328125 1:10.21 2:0.05736 3:1.988E-4 4:1847.0 5:0.001651 6:0.06408 7:0.572 8:25.1 9:183.9 10:151.1 11:0.008946 12:3.979 13:0.02814 14:5.69E-4 15:243.4 16:0.00119 17:0.04578 18:0.05615 19:10.07 20:39.57 21:167.7 22:0.001468 
-1.0 0.9111328125 1:12.45 2:0.06315 3:1.485E-4 4:1799.0 5:0.001526 6:0.05839 7:0.5859 8:27.29 9:205.3 10:114.6 11:0.009861 12:5.075 13:0.02399 14:3.05E-4 15:240.0 16:0.001042 17:0.0392 18:0.0843 19:11.03 20:27.89 21:87.12 22:0.001548 
-1.0 0.9111328125 1:10.26 2:0.05623 3:1.648E-4 4:1794.0 5:0.001574 6:0.05998 7:0.5904 8:22.79 9:200.1 10:143.5 11:0.01018 12:3.948 13:0.02346 14:8.454E-4 15:193.0 16:0.001546 17:0.05846 18:0.08534 19:7.905 20:29.14 21:204.4 22:0.00174 
-1.0 0.9111328125 1:12.37 2:0.07351 3:0.00117 4:1693.0 5:0.003757 6:0.1472 7:0.5647 8:33.97 9:202.6 10:673.2 11:0.009083 12:5.534 13:0.03634 14:0.00181 15:235.6 16:0.001772 17:0.06722 18:0.06214 19:13.06 20:12.7 21:346.7 22:0.0021 
-1.0 0.9111328125 1:23.88 2:0.1274 3:6.36E-4 4:1775.0 5:0.002976 6:0.1127 7:0.5906 8:50.81 9:197.1 10:368.4 11:0.009687 12:17.45 13:0.1062 14:0.00213 15:237.5 16:0.001783 17:0.06605 18:0.04584 19:23.37 20:38.21 21:122.8 22:0.003264 
-1.0 0.9111328125 1:10.56 2:0.05811 3:2.553E-4 4:1758.0 5:0.002141 6:0.08207 7:0.5648 8:24.45 9:203.9 10:212.0 11:0.009364 12:4.48 13:0.02583 14:5.476E-4 15:261.0 16:0.001236 17:0.04674 18:0.08272 19:10.46 20:14.62 21:132.8 22:0.001492 
-1.0 0.9111328125 1:17.86 2:0.1141 3:3.696E-4 4:1646.0 5:0.001815 6:0.07095 7:0.6245 8:46.84 9:203.8 10:174.3 11:0.01009 12:19.71 13:0.1382 14:8.936E-4 15:174.8 16:0.001591 17:0.0591 18:0.072 19:41.06 20:33.66 21:165.3 22:0.001647 
-1.0 0.9111328125 1:12.31 2:0.07287 3:0.001234 4:1813.0 5:0.003754 6:0.146 7:0.5534 8:31.3 9:205.4 10:783.0 11:0.009494 12:11.79 13:0.08644 14:0.003078 15:190.2 16:0.002722 17:0.1038 18:0.07569 19:17.23 20:26.58 21:708.8 22:0.003197 
-1.0 0.9111328125 1:12.5 2:0.07049 3:2.733E-4 4:1844.0 5:0.002195 6:0.08482 7:0.5745 8:28.23 9:210.0 10:214.4 11:0.009456 12:4.126 13:0.02779 14:9.044E-4 15:293.2 16:0.001273 17:0.04802 18:0.08614 19:8.504 20:19.17 21:111.4 22:0.002686 
-1.0 0.9111328125 1:13.35 2:0.0853 3:1.712E-4 4:1734.0 5:0.001245 6:0.04939 7:0.5451 8:34.48 9:213.4 10:94.02 11:0.01017 12:6.884 13:0.05109 14:3.758E-4 15:225.7 16:0.00102 17:0.04003 18:0.06988 19:16.42 20:12.68 21:104.8 22:0.003743 
-1.0 0.9111328125 1:17.45 2:0.09327 3:2.283E-4 4:1763.0 5:0.001773 6:0.06915 7:0.5675 8:38.18 9:203.3 10:159.0 11:0.00921 12:7.154 13:0.03856 14:4.518E-4 15:246.1 16:0.001219 17:0.04686 18:0.05936 19:13.61 20:27.96 21:123.1 22:0.001331 
-1.0 0.9111328125 1:12.46 2:0.07033 3:4.046E-4 4:1854.0 5:0.002657 6:0.1024 7:0.5496 8:29.15 9:204.1 10:360.3 11:0.009088 12:5.062 13:0.03869 14:7.413E-4 15:229.0 16:0.001672 17:0.06386 18:0.06392 19:11.2 20:26.81 21:301.8 22:0.001221 
-1.0 0.9111328125 1:18.91 2:0.1042 3:7.403E-4 4:1751.0 5:0.003625 6:0.1393 7:0.5082 8:46.52 9:214.3 10:630.1 11:0.009081 12:7.578 13:0.04781 14:0.001195 15:233.9 16:0.001945 17:0.07201 18:0.06703 19:16.91 20:5.519 21:381.9 22:0.002028 
-1.0 0.9111328125 1:8.182 2:0.0492 3:3.158E-4 4:1782.0 5:0.00193 6:0.07391 7:0.5845 8:20.59 9:205.2 10:166.8 11:0.009434 12:5.74 13:0.0408 14:0.001128 15:299.6 16:0.00149 17:0.05512 18:0.08996 19:14.84 20:26.87 21:112.0 22:0.002369 
-1.0 0.9111328125 1:16.78 2:0.09161 3:8.819E-4 4:1783.0 5:0.003711 6:0.1443 7:0.5324 8:43.96 9:211.6 10:675.7 11:0.009144 12:12.86 13:0.08184 14:0.002236 15:203.6 16:0.001965 17:0.07488 18:0.06617 19:29.77 20:13.64 21:397.5 22:0.001948 
-1.0 0.9111328125 1:10.63 2:0.06393 3:0.001515 4:1792.0 5:0.002157 6:0.08422 7:0.6562 8:29.75 9:142.1 10:219.6 11:0.01203 12:8.522 13:0.06679 14:0.004679 15:313.0 16:0.002116 17:0.07976 18:0.0603 19:20.8 20:33.67 21:96.37 22:0.007079 
-1.0 0.9111328125 1:17.96 2:0.1015 3:6.411E-4 4:1689.0 5:0.002594 6:0.1022 7:0.5752 8:42.35 9:192.0 10:354.0 11:0.009188 12:16.81 13:0.1233 14:0.001259 15:234.0 16:0.001509 17:0.05852 18:0.05521 19:34.85 20:24.06 21:280.2 22:0.002813 
-1.0 0.9111328125 1:19.84 2:0.1337 3:2.198E-4 4:1741.0 5:0.001758 6:0.06757 7:0.5931 8:51.99 9:208.6 10:152.2 11:0.009159 12:17.17 13:0.1391 14:5.205E-4 15:269.5 16:0.00122 17:0.04574 18:0.06726 19:42.64 20:24.16 21:98.44 22:0.001223 
-1.0 0.9111328125 1:14.43 2:0.0798 3:2.533E-4 4:1819.0 5:0.002347 6:0.0902 7:0.5521 8:34.26 9:214.9 10:248.7 11:0.01002 12:11.06 13:0.09019 14:5.482E-4 15:224.3 16:0.001398 17:0.05349 18:0.07356 19:23.15 20:5.086 21:159.8 22:0.003685 
-1.0 0.9111328125 1:15.82 2:0.1011 3:4.476E-4 4:1639.0 5:0.00228 6:0.08713 7:0.6013 8:40.79 9:202.4 10:290.2 11:0.01073 12:10.08 13:0.07729 14:0.001115 15:150.0 16:0.001978 17:0.07389 18:0.08792 19:26.42 20:37.95 21:239.9 22:0.003615 
-1.0 0.9111328125 1:11.95 2:0.07167 3:0.001215 4:1780.0 5:0.004415 6:0.1714 7:0.4808 8:25.96 9:207.0 10:854.8 11:0.00866 12:16.68 13:0.111 14:0.001248 15:207.8 16:0.001382 17:0.0513 18:0.06674 19:15.74 20:21.32 21:242.4 22:7.51E-4 
-1.0 0.9111328125 1:9.914 2:0.06327 3:4.872E-4 4:1894.0 5:0.002669 6:0.103 7:0.5398 8:27.26 9:194.2 10:326.2 11:0.008954 12:5.606 13:0.04723 14:9.898E-4 15:322.1 16:0.001343 17:0.0501 18:0.06129 19:14.5 20:29.19 21:207.5 22:0.002545 
-1.0 0.9111328125 1:15.45 2:0.0842 3:3.295E-4 4:1777.0 5:0.001645 6:0.06384 7:0.6 8:35.91 9:205.8 10:137.9 11:0.009635 12:6.902 13:0.04406 14:0.00159 15:221.1 16:0.00131 17:0.04948 18:0.07196 19:14.44 20:15.02 21:114.7 22:0.001618 
-1.0 0.9111328125 1:13.54 2:0.07616 3:7.659E-4 4:1764.0 5:0.003532 6:0.1364 7:0.5508 8:31.54 9:202.3 10:555.2 11:0.009354 12:5.617 13:0.03737 14:0.001125 15:324.8 16:0.001654 17:0.06206 18:0.08123 19:12.75 20:27.58 21:241.4 22:0.003972 
-1.0 0.9111328125 1:9.613 2:0.05337 3:1.995E-4 4:1756.0 5:0.00148 6:0.0568 7:0.5715 8:22.16 9:211.0 10:149.6 11:0.009521 12:3.866 13:0.02257 14:4.213E-4 15:154.0 16:0.00136 17:0.05173 18:0.07721 19:8.992 20:24.17 21:214.6 22:0.001696 
-1.0 0.9111328125 1:14.79 2:0.08013 3:1.491E-4 4:1742.0 5:0.00138 6:0.05279 7:0.6112 8:32.99 9:169.5 10:85.45 11:0.009875 12:9.028 13:0.05495 14:5.252E-4 15:325.4 16:0.001102 17:0.04143 18:0.07248 19:17.73 20:39.06 21:55.78 22:0.002495 
-1.0 0.9111328125 1:16.45 2:0.1031 3:8.685E-4 4:1755.0 5:0.003532 6:0.1379 7:0.543 8:40.2 9:211.4 10:658.1 11:0.0091 12:9.196 13:0.06742 14:0.001289 15:292.1 16:0.002117 17:0.08215 18:0.09202 19:21.44 20:16.98 21:514.9 22:0.001468 
-1.0 0.9111328125 1:14.84 2:0.08721 3:0.001071 4:1785.0 5:0.004506 6:0.1742 7:0.5471 8:35.41 9:213.3 10:957.1 11:0.0091 12:6.284 13:0.05026 14:0.001483 15:243.3 16:0.002343 17:0.08838 18:0.06672 19:15.36 20:9.973 21:518.4 22:0.001468 
-1.0 0.9111328125 1:15.97 2:0.08706 3:7.531E-4 4:1727.0 5:0.004221 6:0.1609 7:0.4803 8:41.01 9:214.4 10:808.7 11:0.009241 12:7.312 13:0.04964 14:0.001347 15:263.3 16:0.001962 17:0.073 18:0.09364 19:15.53 20:4.658 21:415.1 22:0.004326 
-1.0 0.9111328125 1:11.35 2:0.06749 3:0.001428 4:1652.0 5:0.004236 6:0.1667 7:0.5295 8:33.3 9:212.4 10:826.0 11:0.008938 12:6.732 13:0.05709 14:0.001815 15:186.9 16:0.002068 17:0.07473 18:0.05974 19:18.98 20:12.53 21:369.8 22:8.098E-4 
-1.0 0.9111328125 1:7.35 2:0.053 3:0.001145 4:1729.0 5:0.003828 6:0.1457 7:0.606 8:22.19 9:215.3 10:652.9 11:0.008744 12:3.978 13:0.03174 14:0.002107 15:197.0 16:0.001924 17:0.06905 18:0.04816 19:10.88 20:0.0 21:326.3 22:2.939E-4 
-1.0 0.9111328125 1:11.03 2:0.06475 3:0.00158 4:1822.0 5:0.004122 6:0.1594 7:0.547 8:27.14 9:198.2 10:772.6 11:0.009449 12:13.86 13:0.1157 14:0.002951 15:256.9 16:0.002394 17:0.08901 18:0.06605 19:24.21 20:32.41 21:437.5 22:0.003153 
-1.0 0.9111328125 1:15.86 2:0.09814 3:1.392E-4 4:1844.0 5:0.001098 6:0.0428 7:0.6066 8:41.17 9:172.7 10:52.67 11:0.009353 12:10.93 13:0.07663 14:4.895E-4 15:326.2 16:7.71E-4 17:0.02863 18:0.09107 19:22.76 20:55.55 21:29.52 22:0.001368 
-1.0 0.9111328125 1:4.46 2:0.0264 3:2.676E-4 4:1858.0 5:0.002528 6:0.09438 7:0.553 8:12.77 9:214.7 10:273.5 11:0.009767 12:6.005 13:0.05802 14:4.95E-4 15:247.5 16:0.001614 17:0.059 18:0.0839 19:18.05 20:2.663 21:166.5 22:0.001148 
-1.0 0.9111328125 1:17.99 2:0.1226 3:4.196E-4 4:1860.0 5:0.003215 6:0.1239 7:0.5415 8:46.37 9:213.0 10:442.5 11:0.008801 12:14.11 13:0.1129 14:6.773E-4 15:283.6 16:0.001247 17:0.04641 18:0.07246 19:33.1 20:11.94 21:185.6 22:0.001404 
-1.0 0.9111328125 1:23.03 2:0.1723 3:0.001138 4:1763.0 5:0.003851 6:0.1514 7:0.5218 8:64.09 9:210.9 10:730.8 11:0.009209 12:17.13 13:0.171 14:0.001943 15:285.4 16:0.001877 17:0.07186 18:0.07068 19:41.51 20:9.855 21:429.2 22:0.003136 
-1.0 0.9111328125 1:12.7 2:0.08002 3:2.229E-4 4:1795.0 5:0.001907 6:0.07307 7:0.5295 8:27.84 9:212.2 10:162.9 11:0.009535 12:17.07 13:0.1142 14:3.82E-4 15:185.0 16:9.048E-4 17:0.03352 18:0.05931 19:22.61 20:8.597 21:60.64 22:0.003166 
-1.0 0.9111328125 1:11.9 2:0.0676 3:1.937E-4 4:1766.0 5:0.002129 6:0.08109 7:0.5524 8:24.85 9:185.8 10:200.2 11:0.009327 12:16.93 13:0.1098 14:4.103E-4 15:251.5 16:0.00115 17:0.04274 18:0.06373 19:20.54 20:33.59 21:80.21 22:0.004019 
-1.0 0.9111328125 1:27.8 2:0.1505 3:3.24E-4 4:1666.0 5:0.002098 6:0.08113 7:0.5709 8:58.5 9:194.3 10:206.2 11:0.009589 12:35.59 13:0.2086 14:6.695E-4 15:270.5 16:0.001204 17:0.04472 18:0.07346 19:64.62 20:32.29 21:79.39 22:0.003177 
-1.0 0.9111328125 1:10.87 2:0.0574 3:1.295E-4 4:1760.0 5:0.001391 6:0.05312 7:0.5654 8:23.91 9:200.7 10:88.98 11:0.00979 12:4.413 13:0.02561 14:3.759E-4 15:241.0 16:9.973E-4 17:0.03767 18:0.07402 19:9.21 20:25.41 21:71.79 22:0.00245 
-1.0 0.9111328125 1:14.18 2:0.07088 3:1.803E-4 4:1841.0 5:0.001869 6:0.07122 7:0.571 8:30.33 9:179.9 10:147.9 11:0.009432 12:4.474 13:0.02779 14:4.979E-4 15:213.7 16:9.858E-4 17:0.03664 18:0.05597 19:9.802 20:22.86 21:56.98 22:0.002205 
-1.0 0.9111328125 1:16.06 2:0.09336 3:7.554E-4 4:1804.0 5:0.002126 6:0.08256 7:0.6263 8:37.11 9:175.7 10:214.2 11:0.01019 12:14.05 13:0.1057 14:0.004028 15:238.6 16:0.001843 17:0.06903 18:0.1132 19:24.73 20:49.69 21:125.7 22:0.00386 
-1.0 -1.0 1:18.95 2:0.1145 3:0.001569 4:1712.0 5:0.004496 6:0.1787 7:0.4998 8:47.62 9:206.3 10:981.0 11:0.009152 12:19.48 13:0.1502 14:0.002274 15:194.6 16:0.002243 17:0.08419 18:0.07166 19:39.92 20:19.48 21:402.0 22:0.001988 
-1.0 -1.0 1:7.665 2:0.05076 3:0.001546 4:1661.0 5:0.004036 6:0.1499 7:0.6465 8:20.43 9:204.6 10:632.7 11:0.008933 12:15.44 13:0.1186 14:0.005579 15:246.6 16:0.002611 17:0.09055 18:0.1292 19:32.89 20:36.09 21:171.0 22:8.799E-4 
-1.0 -1.0 1:15.87 2:0.09811 3:0.001415 4:1678.0 5:0.004122 6:0.1622 7:0.5173 8:37.34 9:210.5 10:831.1 11:0.009277 12:16.68 13:0.1281 14:0.002225 15:182.0 16:0.002263 17:0.08728 18:0.08764 19:36.87 20:19.44 21:528.6 22:0.001713 
-1.0 -1.0 1:9.846 2:0.05754 3:2.333E-4 4:1690.0 5:0.00215 6:0.08245 7:0.5734 8:23.95 9:213.5 10:209.3 11:0.01044 12:9.619 13:0.07941 14:5.688E-4 15:232.5 16:0.001713 17:0.06511 18:0.08234 19:22.38 20:12.48 21:136.3 22:0.002012 
-1.0 -1.0 1:25.82 2:0.1773 3:0.004022 4:1607.0 5:0.005276 6:0.221 7:0.5746 8:68.49 9:188.0 10:1519.0 11:0.009337 12:20.27 13:0.1502 14:0.004913 15:179.6 16:0.002955 17:0.114 18:0.07245 19:41.73 20:23.82 21:790.9 22:0.002004 
-1.0 -1.0 1:29.95 2:0.2099 3:0.004248 4:1596.0 5:0.004739 6:0.1964 7:0.5086 8:76.12 9:199.9 10:1162.0 11:0.009031 12:21.63 13:0.1575 14:0.004214 15:237.7 16:0.00233 17:0.08941 18:0.0722 19:41.97 20:12.62 21:594.4 22:8.15E-4 
-1.0 -1.0 1:19.16 2:0.1269 3:0.003615 4:1669.0 5:0.005937 6:0.238 7:0.4877 8:49.93 9:212.9 10:1712.0 11:0.008842 12:18.56 13:0.1446 14:0.004912 15:176.8 16:0.002626 17:0.1006 18:0.06999 19:34.55 20:10.26 21:696.9 22:0.001157 
-1.0 -1.0 1:17.21 2:0.1121 3:0.003346 4:1677.0 5:0.004783 6:0.1938 7:0.5546 8:48.2 9:196.1 10:1221.0 11:0.008894 12:13.02 13:0.112 14:0.008411 15:185.7 16:0.00272 17:0.1059 18:0.08147 19:30.46 20:30.39 21:692.6 22:7.935E-4 
-1.0 -1.0 1:23.88 2:0.1728 3:0.00746 4:1603.0 5:0.00707 6:0.2926 7:0.5313 8:64.07 9:203.9 10:2526.0 11:0.0093 12:18.67 13:0.1557 14:0.007897 15:172.6 16:0.003393 17:0.1273 18:0.06037 19:39.31 20:14.42 21:1119.0 22:0.003824 
-1.0 -1.0 1:19.52 2:0.13 3:0.003026 4:1664.0 5:0.005586 6:0.226 7:0.5731 8:50.86 9:200.0 10:1589.0 11:0.008928 12:21.91 13:0.1703 14:0.004785 15:178.1 16:0.002725 17:0.1057 18:0.0868 19:42.25 20:33.17 21:881.7 22:0.001234 
-1.0 -1.0 1:22.69 2:0.1608 3:0.004557 4:1633.0 5:0.004964 6:0.1992 7:0.6113 8:60.53 9:188.2 10:1275.0 11:0.009874 12:23.35 13:0.1882 14:0.007376 15:187.7 16:0.003398 17:0.1237 18:0.06588 19:48.83 20:42.53 21:735.6 22:0.00173 
-1.0 -1.0 1:21.1 2:0.1479 3:0.002348 4:1654.0 5:0.004117 6:0.1646 7:0.5538 8:54.05 9:207.5 10:775.0 11:0.009517 12:24.24 13:0.1824 14:0.003129 15:215.5 16:0.002106 17:0.07713 18:0.05268 19:43.73 20:17.54 21:206.7 22:0.01225 
-1.0 -1.0 1:14.44 2:0.09415 3:0.005161 4:1648.0 5:0.00649 6:0.254 7:0.6176 8:42.07 9:184.9 10:1917.0 11:0.009957 12:12.87 13:0.1107 14:0.00736 15:211.4 16:0.003416 17:0.1243 18:0.05893 19:28.41 20:10.45 21:704.3 22:0.00304 
-1.0 -1.0 1:17.31 2:0.1192 3:0.006067 4:1622.0 5:0.005944 6:0.2351 7:0.6333 8:47.8 9:172.9 10:1631.0 11:0.009262 12:20.22 13:0.1604 14:0.01094 15:237.1 16:0.00425 17:0.1503 18:0.04768 19:42.8 20:39.76 21:709.8 22:0.00433 
-1.0 -1.0 1:16.5 2:0.09785 3:0.003864 4:1680.0 5:0.005033 6:0.1989 7:0.5827 8:44.64 9:193.3 10:1229.0 11:0.009324 12:18.47 13:0.1415 14:0.007245 15:245.4 16:0.002797 17:0.1046 18:0.07012 19:34.14 20:12.63 21:668.7 22:0.001631 
-1.0 -1.0 1:16.94 2:0.1137 3:0.003474 4:1639.0 5:0.005211 6:0.2128 7:0.536 8:47.47 9:205.0 10:1420.0 11:0.0089 12:10.65 13:0.1016 14:0.004721 15:176.2 16:0.002589 17:0.1022 18:0.06082 19:26.49 20:13.12 21:744.2 22:8.279E-4 
-1.0 -1.0 1:8.235 2:0.04952 3:0.001901 4:1682.0 5:0.004856 6:0.1871 7:0.5425 8:22.93 9:214.9 10:1031.0 11:0.008887 12:7.178 13:0.06403 14:0.002745 15:229.7 16:0.002031 17:0.07391 18:0.05827 19:16.95 20:4.622 21:342.2 22:0.001221 
-1.0 -1.0 1:19.14 2:0.1238 3:0.003252 4:1682.0 5:0.00424 6:0.1699 7:0.5498 8:51.26 9:187.3 10:927.1 11:0.009332 12:20.95 13:0.1559 14:0.005972 15:213.8 16:0.002874 17:0.1091 18:0.09517 19:43.81 20:27.03 21:580.6 22:0.001537 
-1.0 -1.0 1:13.86 2:0.08951 3:0.004391 4:1676.0 5:0.0059 6:0.2319 7:0.5444 8:40.57 9:198.8 10:1639.0 11:0.009185 12:9.763 13:0.08884 14:0.007935 15:213.4 16:0.003091 17:0.1153 18:0.07077 19:23.44 20:8.744 21:683.2 22:0.001284 
-1.0 -1.0 1:7.979 2:0.0533 3:0.003123 4:1612.0 5:0.004989 6:0.1938 7:0.5641 8:22.02 9:206.9 10:1204.0 11:0.009212 12:4.396 13:0.03616 14:0.006709 15:265.6 16:0.00298 17:0.1083 18:0.07772 19:11.82 20:15.39 21:642.2 22:0.002486 
-1.0 -1.0 1:14.3 2:0.0964 3:0.002409 4:1661.0 5:0.003886 6:0.1519 7:0.5873 8:39.7 9:178.3 10:771.2 11:0.008865 12:12.38 13:0.1009 14:0.004074 15:217.8 16:0.002717 17:0.09931 18:0.0655 19:28.84 20:34.52 21:462.3 22:8.609E-4 
-1.0 -1.0 1:21.26 2:0.1316 3:0.002896 4:1643.0 5:0.005336 6:0.2118 7:0.5507 8:59.05 9:213.7 10:1367.0 11:0.009021 12:24.02 13:0.1597 14:0.004052 15:194.9 16:0.002547 17:0.09618 18:0.07197 19:47.77 20:9.099 21:621.4 22:0.00187 
-1.0 -1.0 1:18.75 2:0.1234 3:0.004869 4:1650.0 5:0.006144 6:0.2416 7:0.6058 8:50.65 9:209.2 10:1897.0 11:0.009777 12:18.75 13:0.1464 14:0.008453 15:182.6 16:0.003776 17:0.1378 18:0.08757 19:39.21 20:20.64 21:1235.0 22:0.002629 
-1.0 -1.0 1:13.86 2:0.08559 3:0.00323 4:1676.0 5:0.004677 6:0.1871 7:0.5733 8:39.79 9:183.7 10:1128.0 11:0.01021 12:16.27 13:0.1301 14:0.007492 15:248.2 16:0.002879 17:0.1114 18:0.0888 19:36.14 20:32.6 21:720.9 22:0.00643 
-1.0 -1.0 1:18.51 2:0.1219 3:0.003738 4:1630.0 5:0.005023 6:0.2029 7:0.5764 8:53.92 9:194.4 10:1307.0 11:0.009057 12:11.5 13:0.1119 14:0.005908 15:235.3 16:0.002788 17:0.1068 18:0.07942 19:26.84 20:39.98 21:817.4 22:7.201E-4 
-1.0 -1.0 1:20.11 2:0.1371 3:0.004837 4:1624.0 5:0.00607 6:0.2466 7:0.522 8:54.28 9:180.4 10:1768.0 11:0.00862 12:17.6 13:0.1432 14:0.004912 15:176.5 16:0.002709 17:0.0992 18:0.04576 19:37.51 20:30.73 21:552.5 22:3.661E-4 
-1.0 -1.0 1:21.31 2:0.1441 3:0.004663 4:1616.0 5:0.006217 6:0.2439 7:0.4741 8:56.37 9:202.3 10:1800.0 11:0.009103 12:20.29 13:0.1595 14:0.008049 15:211.6 16:0.003649 17:0.1304 18:0.08646 19:42.85 20:23.64 21:902.6 22:0.001306 
-1.0 -1.0 1:16.49 2:0.1088 3:0.00764 4:1630.0 5:0.007653 6:0.3054 7:0.5252 8:46.68 9:213.5 10:2957.0 11:0.0089 12:11.89 13:0.09496 14:0.009003 15:195.4 16:0.004091 17:0.151 18:0.05873 19:27.25 20:11.79 21:1531.0 22:0.001236 
-1.0 -1.0 1:17.95 2:0.1191 3:0.003079 4:1671.0 5:0.004421 6:0.1755 7:0.5234 8:48.13 9:184.8 10:977.4 11:0.009382 12:16.07 13:0.1329 14:0.005339 15:219.9 16:0.002788 17:0.1068 18:0.06274 19:35.25 20:43.07 21:558.8 22:0.001873 
-1.0 -1.0 1:11.9 2:0.07686 3:0.005859 4:1630.0 5:0.006153 6:0.231 7:0.5265 8:30.87 9:195.4 10:1541.0 11:0.00906 12:19.26 13:0.1384 14:0.01043 15:210.2 16:0.004079 17:0.1397 18:0.08678 19:38.98 20:42.58 21:575.9 22:0.001006 
-1.0 -1.0 1:13.39 2:0.08003 3:0.001483 4:1661.0 5:0.004295 6:0.1687 7:0.5388 8:34.82 9:208.1 10:937.1 11:0.00967 12:18.15 13:0.1355 14:0.002501 15:237.7 16:0.002923 17:0.1118 18:0.08318 19:38.85 20:21.18 21:626.9 22:0.001544 
-1.0 -1.0 1:13.96 2:0.0861 3:5.327E-4 4:1744.0 5:0.002307 6:0.09194 7:0.565 8:34.4 9:194.7 10:323.4 11:0.009563 12:14.95 13:0.1042 14:0.001063 15:222.2 16:0.001856 17:0.07446 18:0.0903 19:33.16 20:43.54 21:342.7 22:0.00136 
-1.0 -1.0 1:10.63 2:0.06893 3:0.00175 4:1627.0 5:0.003626 6:0.1412 7:0.5464 8:29.67 9:168.5 10:660.0 11:0.009032 12:12.76 13:0.1056 14:0.003086 15:190.8 16:0.00228 17:0.08691 18:0.06436 19:30.33 20:22.64 21:532.5 22:6.033E-4 
-1.0 -1.0 1:18.51 2:0.1128 3:0.001396 4:1749.0 5:0.004304 6:0.1684 7:0.447 8:42.38 9:210.3 10:868.1 11:0.009075 12:17.07 13:0.143 14:0.002509 15:207.8 16:0.002315 17:0.08749 18:0.09198 19:36.44 20:15.87 21:429.5 22:0.001379 
-1.0 -1.0 1:8.623 2:0.05624 3:0.004616 4:1673.0 5:0.006462 6:0.2487 7:0.5331 8:24.72 9:197.4 10:1857.0 11:0.009443 12:9.323 13:0.08008 14:0.007751 15:229.5 16:0.003106 17:0.1148 18:0.07896 19:23.67 20:21.45 21:803.7 22:0.001433 
-1.0 -1.0 1:12.76 2:0.08372 3:0.004131 4:1684.0 5:0.006676 6:0.2633 7:0.4947 8:34.05 9:214.8 10:2060.0 11:0.008681 12:10.02 13:0.09018 14:0.003716 15:223.9 16:0.002401 17:0.09119 18:0.04779 19:23.27 20:7.344 21:830.2 22:4.411E-4 
-1.0 -1.0 1:12.03 2:0.07419 3:0.002643 4:1608.0 5:0.004702 6:0.1846 7:0.538 8:35.48 9:206.0 10:1079.0 11:0.00924 12:12.62 13:0.1104 14:0.004907 15:185.1 16:0.002824 17:0.1069 18:0.09345 19:29.3 20:32.14 21:543.0 22:9.187E-4 
-1.0 -1.0 1:29.86 2:0.2012 3:0.004592 4:1647.0 5:0.006247 6:0.2549 7:0.4673 8:77.65 9:206.0 10:1940.0 11:0.009389 12:28.87 13:0.2183 14:0.005528 15:181.9 16:0.003094 17:0.1113 18:0.07655 19:54.39 20:22.35 21:817.9 22:0.003612 
-1.0 -1.0 1:24.64 2:0.1864 3:0.0019 4:1688.0 5:0.003899 6:0.1645 7:0.5994 8:67.46 9:214.2 10:830.6 11:0.008986 12:21.4 13:0.1899 14:0.003162 15:230.2 16:0.001867 17:0.07392 18:0.06549 19:45.01 20:7.92 21:391.6 22:0.001244 
-1.0 -1.0 1:19.48 2:0.1277 3:0.004398 4:1635.0 5:0.005873 6:0.2389 7:0.5031 8:50.9 9:209.7 10:1764.0 11:0.009012 12:16.82 13:0.1279 14:0.007369 15:192.0 16:0.002928 17:0.1148 18:0.05235 19:35.51 20:21.27 21:921.2 22:0.001213 
-1.0 -1.0 1:20.92 2:0.1375 3:9.301E-4 4:1697.0 5:0.002901 6:0.1176 7:0.5235 8:52.49 9:203.1 10:425.5 11:0.00907 12:23.14 13:0.1885 14:0.001298 15:245.6 16:0.001512 17:0.05904 18:0.07658 19:49.2 20:16.08 21:231.5 22:0.001226 
-1.0 -1.0 1:10.35 2:0.0598 3:0.00159 4:1611.0 5:0.003932 6:0.1534 7:0.5515 8:29.68 9:202.5 10:731.7 11:0.009179 12:7.221 13:0.06739 14:0.002915 15:202.8 16:0.002301 17:0.08598 18:0.06958 19:20.1 20:27.58 21:383.9 22:0.001475 
-1.0 -1.0 1:14.28 2:0.09886 3:0.005038 4:1601.0 5:0.006343 6:0.2502 7:0.54 8:41.41 9:197.9 10:1989.0 11:0.009085 12:15.15 13:0.1276 14:0.005973 15:203.7 16:0.003456 17:0.127 18:0.05809 19:32.66 20:23.75 21:1090.0 22:0.002228 
-1.0 -1.0 1:12.34 2:0.08306 3:0.003439 4:1580.0 5:0.005497 6:0.2166 7:0.5606 8:37.52 9:201.6 10:1376.0 11:0.009048 12:10.32 13:0.09438 14:0.004387 15:161.6 16:0.002503 17:0.09161 18:0.05183 19:25.81 20:23.49 21:555.1 22:0.002603 
-1.0 -1.0 1:29.48 2:0.215 3:0.007464 4:1583.0 5:0.00635 6:0.2767 7:0.5433 8:78.92 9:195.7 10:2340.0 11:0.00889 12:20.76 13:0.1686 14:0.008582 15:212.2 16:0.003284 17:0.1331 18:0.07051 19:42.45 20:24.43 21:1173.0 22:7.508E-4 
-1.0 -1.0 1:20.24 2:0.1279 3:0.002312 4:1707.0 5:0.004806 6:0.1928 7:0.5143 8:51.52 9:212.6 10:1213.0 11:0.009199 12:17.1 13:0.1282 14:0.003612 15:194.5 16:0.002645 17:0.1022 18:0.08335 19:36.29 20:16.68 21:815.2 22:0.001333 
-1.0 -1.0 1:9.721 2:0.05898 3:0.001382 4:1714.0 5:0.004841 6:0.1857 7:0.5328 8:24.33 9:196.9 10:1026.0 11:0.00996 12:13.98 13:0.1071 14:0.002772 15:317.8 16:0.00305 17:0.1139 18:0.09777 19:28.88 20:21.86 21:432.4 22:0.002803 
-1.0 -1.0 1:12.54 2:0.07574 3:0.00251 4:1691.0 5:0.004652 6:0.1832 7:0.5565 8:34.95 9:203.3 10:1013.0 11:0.009049 12:9.007 13:0.08946 14:0.003847 15:202.3 16:0.002464 17:0.09358 18:0.06528 19:23.12 20:21.09 21:428.0 22:0.001057 
-1.0 -1.0 1:14.62 2:0.09531 3:0.002525 4:1662.0 5:0.005264 6:0.2108 7:0.5425 8:42.58 9:214.7 10:1330.0 11:0.00904 12:11.72 13:0.1042 14:0.004137 15:176.3 16:0.002101 17:0.08092 18:0.07705 19:28.43 20:4.854 21:550.5 22:0.002182 
-1.0 -1.0 1:15.7 2:0.0958 3:0.002801 4:1722.0 5:0.005452 6:0.2151 7:0.5084 8:41.47 9:207.5 10:1517.0 11:0.009262 12:16.16 13:0.1253 14:0.004426 15:187.7 16:0.003007 17:0.1154 18:0.07941 19:35.59 20:18.67 21:970.2 22:0.001478 
-1.0 -1.0 1:14.89 2:0.09324 3:4.971E-4 4:1756.0 5:0.002417 6:0.09519 7:0.5435 8:40.09 9:212.5 10:318.1 11:0.009675 12:12.08 13:0.09963 14:8.653E-4 15:214.4 16:0.001817 17:0.0696 18:0.07362 19:27.96 20:14.9 21:289.3 22:0.00124 
-1.0 -1.0 1:11.67 2:0.07275 3:0.001233 4:1746.0 5:0.004464 6:0.1741 7:0.5207 8:30.89 9:206.5 10:920.0 11:0.009064 12:7.835 13:0.07078 14:0.001795 15:172.2 16:0.00233 17:0.08918 18:0.07224 19:19.89 20:26.94 21:488.1 22:0.001442 
-1.0 -1.0 1:20.33 2:0.1228 3:0.002678 4:1641.0 5:0.005005 6:0.1988 7:0.4661 8:51.61 9:210.8 10:1301.0 11:0.009484 12:29.23 13:0.1884 14:0.004398 15:299.3 16:0.002833 17:0.1075 18:0.1083 19:57.57 20:15.07 21:783.0 22:0.004779 
-1.0 -1.0 1:17.61 2:0.1143 3:0.00195 4:1674.0 5:0.003932 6:0.1597 7:0.5448 8:47.42 9:214.0 10:962.2 11:0.009218 12:16.02 13:0.1191 14:0.002894 15:177.9 16:0.002769 17:0.1122 18:0.0858 19:34.33 20:7.68 21:870.0 22:0.002031 
-1.0 -1.0 1:14.49 2:0.09123 3:0.001753 4:1698.0 5:0.003815 6:0.1504 7:0.5695 8:38.51 9:206.3 10:695.1 11:0.008848 12:11.4 13:0.09596 14:0.004177 15:257.9 16:0.00193 17:0.07229 18:0.08242 19:25.0 20:20.92 21:380.8 22:0.00123 
-1.0 -1.0 1:14.26 2:0.08888 3:0.001577 4:1675.0 5:0.004292 6:0.1693 7:0.4994 8:39.13 9:207.9 10:956.3 11:0.009223 12:14.45 13:0.1281 14:0.003787 15:225.9 16:0.002611 17:0.1006 18:0.07962 19:31.54 20:20.39 21:635.3 22:0.002161 
-1.0 -1.0 1:21.5 2:0.142 3:7.21E-4 4:1731.0 5:0.002161 6:0.08767 7:0.5312 8:55.49 9:190.7 10:237.0 11:0.009068 12:19.51 13:0.1481 14:0.001726 15:200.0 16:0.001307 17:0.05114 18:0.06772 19:40.66 20:41.1 21:139.5 22:7.285E-4 
-1.0 -1.0 1:20.61 2:0.1377 3:0.008089 4:1624.0 5:0.00727 6:0.2966 7:0.5445 8:55.06 9:211.4 10:2481.0 11:0.009188 12:16.06 13:0.1217 14:0.009544 15:203.1 16:0.003474 17:0.1302 18:0.05133 19:34.27 20:16.74 21:496.4 22:5.375E-4 
-1.0 -1.0 1:10.65 2:0.06138 3:0.001343 4:1779.0 5:0.004832 6:0.1875 7:0.5001 8:28.68 9:213.2 10:1079.0 11:0.009469 12:10.61 13:0.0946 14:0.002177 15:212.4 16:0.002672 17:0.09963 18:0.08537 19:25.34 20:10.88 21:522.3 22:0.001782 
-1.0 -1.0 1:17.19 2:0.1109 3:0.001618 4:1710.0 5:0.003897 6:0.1548 7:0.5091 8:44.23 9:210.8 10:888.6 11:0.009152 12:14.04 13:0.09975 14:0.003311 15:199.1 16:0.002702 17:0.1075 18:0.0756 19:30.99 20:17.17 21:835.2 22:0.001433 
-1.0 -1.0 1:14.36 2:0.08368 3:5.096E-4 4:1771.0 5:0.002914 6:0.114 7:0.5402 8:38.31 9:213.6 10:428.0 11:0.00981 12:17.05 13:0.1189 14:0.001111 15:208.0 16:0.001831 17:0.06946 18:0.08886 19:37.01 20:5.647 21:306.2 22:0.002116 
-1.0 -1.0 1:13.78 2:0.08746 3:4.694E-4 4:1639.0 5:0.001904 6:0.07582 7:0.5713 8:37.71 9:207.4 10:199.3 11:0.009409 12:10.52 13:0.08836 14:9.842E-4 15:249.0 16:0.001235 17:0.0478 18:0.08165 19:25.94 20:21.75 21:144.0 22:0.002886 
-1.0 -1.0 1:12.2 2:0.08096 3:0.002561 4:1720.0 5:0.005549 6:0.2144 7:0.5343 8:31.42 9:213.7 10:1377.0 11:0.008857 12:17.4 13:0.1359 14:0.003661 15:206.9 16:0.002517 17:0.09205 18:0.07256 19:30.89 20:10.02 21:535.3 22:0.001132 
-1.0 -1.0 1:7.36 2:0.04233 3:0.002644 4:1687.0 5:0.006468 6:0.2468 7:0.5384 8:22.31 9:210.6 10:1893.0 11:0.008985 12:8.26 13:0.0678 14:0.003744 15:264.0 16:0.003225 17:0.1193 18:0.07537 19:20.94 20:13.64 21:1148.0 22:0.001763 
-1.0 -1.0 1:14.47 2:0.09805 3:0.002213 4:1712.0 5:0.004788 6:0.1908 7:0.5139 8:38.69 9:214.8 10:1187.0 11:0.009027 12:16.78 13:0.1287 14:0.00322 15:187.4 16:0.002476 17:0.09565 18:0.07907 19:31.96 20:5.936 21:668.7 22:0.001258 
-1.0 -1.0 1:13.94 2:0.07851 3:0.001889 4:1760.0 5:0.004938 6:0.1926 7:0.5139 8:33.52 9:202.6 10:1233.0 11:0.009113 12:10.01 13:0.07994 14:0.0029 15:198.3 16:0.002982 17:0.115 18:0.08038 19:23.02 20:29.76 21:898.6 22:0.00113 
-1.0 -1.0 1:13.02 2:0.08689 3:0.002349 4:1684.0 5:0.004727 6:0.186 7:0.5405 8:36.93 9:208.1 10:1015.0 11:0.008667 12:15.74 13:0.1361 14:0.004847 15:186.1 16:0.002065 17:0.07579 18:0.07723 19:35.89 20:24.22 21:392.5 22:3.973E-4 
-1.0 -1.0 1:22.43 2:0.1568 3:0.007099 4:1575.0 5:0.006802 6:0.2851 7:0.5133 8:64.18 9:203.7 10:2410.0 11:0.009019 12:15.34 13:0.1399 14:0.006925 15:227.2 16:0.002884 17:0.1121 18:0.06326 19:33.11 20:19.0 21:847.2 22:0.002777 
-1.0 -1.0 1:18.87 2:0.1263 3:0.004349 4:1630.0 5:0.004947 6:0.1965 7:0.5552 8:48.98 9:160.9 10:1133.0 11:0.009587 12:24.98 13:0.1911 14:0.006013 15:305.9 16:0.003272 17:0.1208 18:0.08756 19:50.07 20:60.4 21:345.7 22:0.003894 
-1.0 -1.0 1:18.06 2:0.1153 3:0.002461 4:1696.0 5:0.004891 6:0.1947 7:0.5159 8:46.53 9:214.8 10:1275.0 11:0.009033 12:20.49 13:0.1482 14:0.004298 15:184.8 16:0.002928 17:0.1127 18:0.06575 19:41.96 20:8.134 21:1078.0 22:8.553E-4 
-1.0 -1.0 1:8.397 2:0.04842 3:6.454E-4 4:1671.0 5:0.002818 6:0.1086 7:0.5526 8:21.02 9:210.3 10:343.1 11:0.008983 12:9.169 13:0.08155 14:0.001449 15:205.3 16:0.001349 17:0.04895 18:0.06353 19:22.51 20:10.12 21:151.9 22:7.177E-4 
-1.0 -1.0 1:14.1 2:0.08084 3:0.001734 4:1671.0 5:0.004153 6:0.1612 7:0.5363 8:36.32 9:209.9 10:957.2 11:0.009457 12:12.25 13:0.1064 14:0.00324 15:237.8 16:0.003124 17:0.1188 18:0.08858 19:29.0 20:18.83 21:874.7 22:0.001944 
-1.0 -1.0 1:13.43 2:0.08059 3:4.599E-4 4:1701.0 5:0.002694 6:0.1053 7:0.5511 8:34.34 9:201.8 10:391.7 11:0.009455 12:13.91 13:0.1031 14:8.025E-4 15:164.3 16:0.001973 17:0.07565 18:0.08073 19:31.08 20:27.93 21:389.5 22:0.001273 
-1.0 -1.0 1:14.33 2:0.08805 3:0.001247 4:1699.0 5:0.003434 6:0.135 7:0.541 8:35.55 9:211.2 10:636.4 11:0.009307 12:9.48 13:0.0818 14:0.002037 15:186.4 16:0.002293 17:0.08934 18:0.06456 19:23.01 20:16.51 21:587.9 22:0.001346 
-1.0 -1.0 1:12.0 2:0.0799 3:0.002054 4:1681.0 5:0.004722 6:0.1826 7:0.5103 8:31.28 9:213.3 10:1042.0 11:0.008759 12:19.59 13:0.1451 14:0.00342 15:204.8 16:0.002239 17:0.08339 18:0.07704 19:34.66 20:8.345 21:544.9 22:0.001091 
-1.0 -1.0 1:10.89 2:0.06974 3:8.344E-4 4:1727.0 5:0.003014 6:0.1173 7:0.5324 8:29.86 9:211.1 10:473.0 11:0.009412 12:13.47 13:0.1102 14:0.002004 15:243.6 16:0.001879 17:0.07274 18:0.07881 19:31.13 20:16.77 21:416.9 22:0.001562 
-1.0 -1.0 1:21.52 2:0.1406 3:0.004349 4:1636.0 5:0.005627 6:0.2276 7:0.4738 8:56.25 9:187.1 10:1509.0 11:0.009061 12:22.33 13:0.1573 14:0.006529 15:203.3 16:0.002893 17:0.1078 18:0.06256 19:44.84 20:11.86 21:578.1 22:8.531E-4 
-1.0 -1.0 1:9.611 2:0.05772 3:0.001928 4:1726.0 5:0.004868 6:0.1878 7:0.5407 8:26.19 9:213.5 10:1203.0 11:0.009319 12:9.372 13:0.08401 14:0.00337 15:282.5 16:0.003068 17:0.1148 18:0.07105 19:23.26 20:10.62 21:968.9 22:0.002832 
-1.0 -1.0 1:16.16 2:0.09942 3:0.001827 4:1669.0 5:0.004353 6:0.1722 7:0.4891 8:40.85 9:204.6 10:1041.0 11:0.00943 12:17.86 13:0.1368 14:0.003201 15:234.1 16:0.002864 17:0.1109 18:0.08913 19:37.81 20:27.01 21:776.5 22:0.002865 
-1.0 -1.0 1:13.69 2:0.08323 3:0.002305 4:1669.0 5:0.003695 6:0.1458 7:0.5905 8:35.46 9:186.1 10:759.1 11:0.009253 12:12.57 13:0.09972 14:0.005838 15:180.9 16:0.002755 17:0.1044 18:0.07553 19:24.13 20:25.69 21:571.1 22:0.001423 
-1.0 -1.0 1:16.5 2:0.1004 3:0.001044 4:1723.0 5:0.00259 6:0.1047 7:0.5743 8:44.84 9:208.4 10:427.8 11:0.009138 12:16.88 13:0.1229 14:0.002657 15:202.4 16:0.002029 17:0.08086 18:0.06717 19:36.93 20:21.79 21:438.3 22:9.485E-4 
-1.0 -1.0 1:13.63 2:0.0844 3:0.001066 4:1724.0 5:0.003956 6:0.1547 7:0.5176 8:34.76 9:209.9 10:738.9 11:0.008941 12:14.55 13:0.104 14:0.001957 15:186.0 16:0.002018 17:0.07684 18:0.07175 19:21.85 20:14.59 21:364.5 22:0.001363 
